<Root>
  <ActivationFunctions>
    <Fn id="0" name="LeakyReLU" prob="1" />
  </ActivationFunctions>
  <Networks>
    <Network id="12930" birthGen="198" fitness="1410">
      <Nodes>
        <Node type="bias" id="0" />
        <Node type="in" id="1" />
        <Node type="in" id="2" />
        <Node type="in" id="3" />
        <Node type="in" id="4" />
        <Node type="in" id="5" />
        <Node type="in" id="6" />
        <Node type="in" id="7" />
        <Node type="out" id="8" />
        <Node type="out" id="9" />
        <Node type="hid" id="33" />
        <Node type="hid" id="45" />
      </Nodes>
      <Connections>
        <Con id="46" src="33" tgt="45" wght="4.9806191903503905" />
        <Con id="47" src="45" tgt="9" wght="4.9858530354072643" />
        <Con id="49" src="4" tgt="8" wght="-0.011379944177273015" />
        <Con id="71" src="6" tgt="33" wght="4.288948590628924" />
        <Con id="72" src="2" tgt="8" wght="0.89940387366151109" />
        <Con id="106" src="1" tgt="45" wght="0.0177874473932669" />
      </Connections>
    </Network>
  </Networks>
</Root>